digraph Tree {
node [shape=box] ;
0 [label="X[4] <= 123.5\ngini = 0.454\nsamples = 537\nvalue = [350, 187]"] ;
1 [label="X[3] <= 28.5\ngini = 0.272\nsamples = 314\nvalue = [263, 51]"] ;
0 -> 1 [labeldistance=2.5, labelangle=45, headlabel="True"] ;
2 [label="X[5] <= 95.0\ngini = 0.096\nsamples = 178\nvalue = [169, 9]"] ;
1 -> 2 ;
3 [label="X[0] <= 7.5\ngini = 0.086\nsamples = 177\nvalue = [169, 8]"] ;
2 -> 3 ;
4 [label="X[2] <= 30.95\ngini = 0.076\nsamples = 176\nvalue = [169, 7]"] ;
3 -> 4 ;
5 [label="gini = 0.0\nsamples = 106\nvalue = [106, 0]"] ;
4 -> 5 ;
6 [label="X[5] <= 22.0\ngini = 0.18\nsamples = 70\nvalue = [63, 7]"] ;
4 -> 6 ;
7 [label="gini = 0.0\nsamples = 1\nvalue = [0, 1]"] ;
6 -> 7 ;
8 [label="X[2] <= 31.1\ngini = 0.159\nsamples = 69\nvalue = [63, 6]"] ;
6 -> 8 ;
9 [label="gini = 0.0\nsamples = 1\nvalue = [0, 1]"] ;
8 -> 9 ;
10 [label="X[6] <= 0.5\ngini = 0.136\nsamples = 68\nvalue = [63, 5]"] ;
8 -> 10 ;
11 [label="X[2] <= 31.8\ngini = 0.04\nsamples = 49\nvalue = [48, 1]"] ;
10 -> 11 ;
12 [label="X[0] <= 2.5\ngini = 0.444\nsamples = 3\nvalue = [2, 1]"] ;
11 -> 12 ;
13 [label="gini = 0.0\nsamples = 2\nvalue = [2, 0]"] ;
12 -> 13 ;
14 [label="gini = 0.0\nsamples = 1\nvalue = [0, 1]"] ;
12 -> 14 ;
15 [label="gini = 0.0\nsamples = 46\nvalue = [46, 0]"] ;
11 -> 15 ;
16 [label="X[6] <= 0.506\ngini = 0.332\nsamples = 19\nvalue = [15, 4]"] ;
10 -> 16 ;
17 [label="gini = 0.0\nsamples = 1\nvalue = [0, 1]"] ;
16 -> 17 ;
18 [label="X[5] <= 67.0\ngini = 0.278\nsamples = 18\nvalue = [15, 3]"] ;
16 -> 18 ;
19 [label="X[2] <= 34.25\ngini = 0.444\nsamples = 9\nvalue = [6, 3]"] ;
18 -> 19 ;
20 [label="gini = 0.0\nsamples = 2\nvalue = [0, 2]"] ;
19 -> 20 ;
21 [label="X[6] <= 0.741\ngini = 0.245\nsamples = 7\nvalue = [6, 1]"] ;
19 -> 21 ;
22 [label="gini = 0.0\nsamples = 5\nvalue = [5, 0]"] ;
21 -> 22 ;
23 [label="X[2] <= 36.4\ngini = 0.5\nsamples = 2\nvalue = [1, 1]"] ;
21 -> 23 ;
24 [label="gini = 0.0\nsamples = 1\nvalue = [1, 0]"] ;
23 -> 24 ;
25 [label="gini = 0.0\nsamples = 1\nvalue = [0, 1]"] ;
23 -> 25 ;
26 [label="gini = 0.0\nsamples = 9\nvalue = [9, 0]"] ;
18 -> 26 ;
27 [label="gini = 0.0\nsamples = 1\nvalue = [0, 1]"] ;
3 -> 27 ;
28 [label="gini = 0.0\nsamples = 1\nvalue = [0, 1]"] ;
2 -> 28 ;
29 [label="X[2] <= 26.95\ngini = 0.427\nsamples = 136\nvalue = [94, 42]"] ;
1 -> 29 ;
30 [label="gini = 0.0\nsamples = 28\nvalue = [28, 0]"] ;
29 -> 30 ;
31 [label="X[6] <= 0.625\ngini = 0.475\nsamples = 108\nvalue = [66, 42]"] ;
29 -> 31 ;
32 [label="X[4] <= 111.5\ngini = 0.397\nsamples = 77\nvalue = [56, 21]"] ;
31 -> 32 ;
33 [label="X[2] <= 27.65\ngini = 0.311\nsamples = 57\nvalue = [46, 11]"] ;
32 -> 33 ;
34 [label="gini = 0.0\nsamples = 2\nvalue = [0, 2]"] ;
33 -> 34 ;
35 [label="X[0] <= 13.5\ngini = 0.274\nsamples = 55\nvalue = [46, 9]"] ;
33 -> 35 ;
36 [label="X[4] <= 28.5\ngini = 0.252\nsamples = 54\nvalue = [46, 8]"] ;
35 -> 36 ;
37 [label="gini = 0.0\nsamples = 1\nvalue = [0, 1]"] ;
36 -> 37 ;
38 [label="X[4] <= 93.5\ngini = 0.229\nsamples = 53\nvalue = [46, 7]"] ;
36 -> 38 ;
39 [label="gini = 0.0\nsamples = 18\nvalue = [18, 0]"] ;
38 -> 39 ;
40 [label="X[5] <= 15.0\ngini = 0.32\nsamples = 35\nvalue = [28, 7]"] ;
38 -> 40 ;
41 [label="gini = 0.0\nsamples = 1\nvalue = [0, 1]"] ;
40 -> 41 ;
42 [label="X[5] <= 73.0\ngini = 0.291\nsamples = 34\nvalue = [28, 6]"] ;
40 -> 42 ;
43 [label="gini = 0.0\nsamples = 13\nvalue = [13, 0]"] ;
42 -> 43 ;
44 [label="X[2] <= 29.55\ngini = 0.408\nsamples = 21\nvalue = [15, 6]"] ;
42 -> 44 ;
45 [label="gini = 0.0\nsamples = 5\nvalue = [5, 0]"] ;
44 -> 45 ;
46 [label="X[5] <= 74.5\ngini = 0.469\nsamples = 16\nvalue = [10, 6]"] ;
44 -> 46 ;
47 [label="gini = 0.0\nsamples = 2\nvalue = [0, 2]"] ;
46 -> 47 ;
48 [label="X[4] <= 98.0\ngini = 0.408\nsamples = 14\nvalue = [10, 4]"] ;
46 -> 48 ;
49 [label="X[2] <= 36.45\ngini = 0.444\nsamples = 3\nvalue = [1, 2]"] ;
48 -> 49 ;
50 [label="gini = 0.0\nsamples = 2\nvalue = [0, 2]"] ;
49 -> 50 ;
51 [label="gini = 0.0\nsamples = 1\nvalue = [1, 0]"] ;
49 -> 51 ;
52 [label="X[3] <= 37.0\ngini = 0.298\nsamples = 11\nvalue = [9, 2]"] ;
48 -> 52 ;
53 [label="gini = 0.0\nsamples = 1\nvalue = [0, 1]"] ;
52 -> 53 ;
54 [label="X[2] <= 41.4\ngini = 0.18\nsamples = 10\nvalue = [9, 1]"] ;
52 -> 54 ;
55 [label="gini = 0.0\nsamples = 9\nvalue = [9, 0]"] ;
54 -> 55 ;
56 [label="gini = 0.0\nsamples = 1\nvalue = [0, 1]"] ;
54 -> 56 ;
57 [label="gini = 0.0\nsamples = 1\nvalue = [0, 1]"] ;
35 -> 57 ;
58 [label="X[4] <= 119.5\ngini = 0.5\nsamples = 20\nvalue = [10, 10]"] ;
32 -> 58 ;
59 [label="X[6] <= 0.201\ngini = 0.426\nsamples = 13\nvalue = [4, 9]"] ;
58 -> 59 ;
60 [label="gini = 0.0\nsamples = 2\nvalue = [2, 0]"] ;
59 -> 60 ;
61 [label="X[5] <= 85.0\ngini = 0.298\nsamples = 11\nvalue = [2, 9]"] ;
59 -> 61 ;
62 [label="gini = 0.0\nsamples = 8\nvalue = [0, 8]"] ;
61 -> 62 ;
63 [label="X[6] <= 0.37\ngini = 0.444\nsamples = 3\nvalue = [2, 1]"] ;
61 -> 63 ;
64 [label="gini = 0.0\nsamples = 2\nvalue = [2, 0]"] ;
63 -> 64 ;
65 [label="gini = 0.0\nsamples = 1\nvalue = [0, 1]"] ;
63 -> 65 ;
66 [label="X[6] <= 0.199\ngini = 0.245\nsamples = 7\nvalue = [6, 1]"] ;
58 -> 66 ;
67 [label="gini = 0.0\nsamples = 1\nvalue = [0, 1]"] ;
66 -> 67 ;
68 [label="gini = 0.0\nsamples = 6\nvalue = [6, 0]"] ;
66 -> 68 ;
69 [label="X[0] <= 4.5\ngini = 0.437\nsamples = 31\nvalue = [10, 21]"] ;
31 -> 69 ;
70 [label="X[1] <= 133.0\ngini = 0.473\nsamples = 13\nvalue = [8, 5]"] ;
69 -> 70 ;
71 [label="X[3] <= 58.0\ngini = 0.32\nsamples = 10\nvalue = [8, 2]"] ;
70 -> 71 ;
72 [label="X[2] <= 33.15\ngini = 0.198\nsamples = 9\nvalue = [8, 1]"] ;
71 -> 72 ;
73 [label="X[2] <= 31.05\ngini = 0.444\nsamples = 3\nvalue = [2, 1]"] ;
72 -> 73 ;
74 [label="gini = 0.0\nsamples = 2\nvalue = [2, 0]"] ;
73 -> 74 ;
75 [label="gini = 0.0\nsamples = 1\nvalue = [0, 1]"] ;
73 -> 75 ;
76 [label="gini = 0.0\nsamples = 6\nvalue = [6, 0]"] ;
72 -> 76 ;
77 [label="gini = 0.0\nsamples = 1\nvalue = [0, 1]"] ;
71 -> 77 ;
78 [label="gini = 0.0\nsamples = 3\nvalue = [0, 3]"] ;
70 -> 78 ;
79 [label="X[5] <= 87.0\ngini = 0.198\nsamples = 18\nvalue = [2, 16]"] ;
69 -> 79 ;
80 [label="X[4] <= 86.5\ngini = 0.111\nsamples = 17\nvalue = [1, 16]"] ;
79 -> 80 ;
81 [label="X[1] <= 35.5\ngini = 0.5\nsamples = 2\nvalue = [1, 1]"] ;
80 -> 81 ;
82 [label="gini = 0.0\nsamples = 1\nvalue = [0, 1]"] ;
81 -> 82 ;
83 [label="gini = 0.0\nsamples = 1\nvalue = [1, 0]"] ;
81 -> 83 ;
84 [label="gini = 0.0\nsamples = 15\nvalue = [0, 15]"] ;
80 -> 84 ;
85 [label="gini = 0.0\nsamples = 1\nvalue = [1, 0]"] ;
79 -> 85 ;
86 [label="X[4] <= 158.5\ngini = 0.476\nsamples = 223\nvalue = [87, 136]"] ;
0 -> 86 [labeldistance=2.5, labelangle=-45, headlabel="False"] ;
87 [label="X[2] <= 41.65\ngini = 0.5\nsamples = 152\nvalue = [76, 76]"] ;
86 -> 87 ;
88 [label="X[6] <= 0.718\ngini = 0.494\nsamples = 133\nvalue = [74, 59]"] ;
87 -> 88 ;
89 [label="X[6] <= 0.218\ngini = 0.473\nsamples = 112\nvalue = [69, 43]"] ;
88 -> 89 ;
90 [label="X[1] <= 460.0\ngini = 0.293\nsamples = 28\nvalue = [23, 5]"] ;
89 -> 90 ;
91 [label="X[0] <= 13.0\ngini = 0.252\nsamples = 27\nvalue = [23, 4]"] ;
90 -> 91 ;
92 [label="X[2] <= 28.5\ngini = 0.204\nsamples = 26\nvalue = [23, 3]"] ;
91 -> 92 ;
93 [label="gini = 0.0\nsamples = 10\nvalue = [10, 0]"] ;
92 -> 93 ;
94 [label="X[2] <= 29.65\ngini = 0.305\nsamples = 16\nvalue = [13, 3]"] ;
92 -> 94 ;
95 [label="gini = 0.0\nsamples = 1\nvalue = [0, 1]"] ;
94 -> 95 ;
96 [label="X[5] <= 67.0\ngini = 0.231\nsamples = 15\nvalue = [13, 2]"] ;
94 -> 96 ;
97 [label="X[4] <= 129.0\ngini = 0.48\nsamples = 5\nvalue = [3, 2]"] ;
96 -> 97 ;
98 [label="gini = 0.0\nsamples = 3\nvalue = [3, 0]"] ;
97 -> 98 ;
99 [label="gini = 0.0\nsamples = 2\nvalue = [0, 2]"] ;
97 -> 99 ;
100 [label="gini = 0.0\nsamples = 10\nvalue = [10, 0]"] ;
96 -> 100 ;
101 [label="gini = 0.0\nsamples = 1\nvalue = [0, 1]"] ;
91 -> 101 ;
102 [label="gini = 0.0\nsamples = 1\nvalue = [0, 1]"] ;
90 -> 102 ;
103 [label="X[3] <= 41.5\ngini = 0.495\nsamples = 84\nvalue = [46, 38]"] ;
89 -> 103 ;
104 [label="X[5] <= 55.0\ngini = 0.456\nsamples = 57\nvalue = [37, 20]"] ;
103 -> 104 ;
105 [label="X[6] <= 0.633\ngini = 0.32\nsamples = 5\nvalue = [1, 4]"] ;
104 -> 105 ;
106 [label="gini = 0.0\nsamples = 4\nvalue = [0, 4]"] ;
105 -> 106 ;
107 [label="gini = 0.0\nsamples = 1\nvalue = [1, 0]"] ;
105 -> 107 ;
108 [label="X[1] <= 117.5\ngini = 0.426\nsamples = 52\nvalue = [36, 16]"] ;
104 -> 108 ;
109 [label="X[3] <= 22.5\ngini = 0.493\nsamples = 25\nvalue = [14, 11]"] ;
108 -> 109 ;
110 [label="gini = 0.0\nsamples = 5\nvalue = [5, 0]"] ;
109 -> 110 ;
111 [label="X[0] <= 9.0\ngini = 0.495\nsamples = 20\nvalue = [9, 11]"] ;
109 -> 111 ;
112 [label="X[6] <= 0.581\ngini = 0.457\nsamples = 17\nvalue = [6, 11]"] ;
111 -> 112 ;
113 [label="X[5] <= 83.0\ngini = 0.391\nsamples = 15\nvalue = [4, 11]"] ;
112 -> 113 ;
114 [label="X[0] <= 3.5\ngini = 0.278\nsamples = 12\nvalue = [2, 10]"] ;
113 -> 114 ;
115 [label="gini = 0.0\nsamples = 6\nvalue = [0, 6]"] ;
114 -> 115 ;
116 [label="X[3] <= 28.5\ngini = 0.444\nsamples = 6\nvalue = [2, 4]"] ;
114 -> 116 ;
117 [label="X[6] <= 0.485\ngini = 0.444\nsamples = 3\nvalue = [2, 1]"] ;
116 -> 117 ;
118 [label="gini = 0.0\nsamples = 2\nvalue = [2, 0]"] ;
117 -> 118 ;
119 [label="gini = 0.0\nsamples = 1\nvalue = [0, 1]"] ;
117 -> 119 ;
120 [label="gini = 0.0\nsamples = 3\nvalue = [0, 3]"] ;
116 -> 120 ;
121 [label="X[1] <= 44.0\ngini = 0.444\nsamples = 3\nvalue = [2, 1]"] ;
113 -> 121 ;
122 [label="gini = 0.0\nsamples = 2\nvalue = [2, 0]"] ;
121 -> 122 ;
123 [label="gini = 0.0\nsamples = 1\nvalue = [0, 1]"] ;
121 -> 123 ;
124 [label="gini = 0.0\nsamples = 2\nvalue = [2, 0]"] ;
112 -> 124 ;
125 [label="gini = 0.0\nsamples = 3\nvalue = [3, 0]"] ;
111 -> 125 ;
126 [label="X[4] <= 137.0\ngini = 0.302\nsamples = 27\nvalue = [22, 5]"] ;
108 -> 126 ;
127 [label="gini = 0.0\nsamples = 11\nvalue = [11, 0]"] ;
126 -> 127 ;
128 [label="X[0] <= 3.5\ngini = 0.43\nsamples = 16\nvalue = [11, 5]"] ;
126 -> 128 ;
129 [label="X[6] <= 0.316\ngini = 0.49\nsamples = 7\nvalue = [3, 4]"] ;
128 -> 129 ;
130 [label="gini = 0.0\nsamples = 2\nvalue = [2, 0]"] ;
129 -> 130 ;
131 [label="X[1] <= 131.5\ngini = 0.32\nsamples = 5\nvalue = [1, 4]"] ;
129 -> 131 ;
132 [label="gini = 0.0\nsamples = 1\nvalue = [1, 0]"] ;
131 -> 132 ;
133 [label="gini = 0.0\nsamples = 4\nvalue = [0, 4]"] ;
131 -> 133 ;
134 [label="X[0] <= 7.5\ngini = 0.198\nsamples = 9\nvalue = [8, 1]"] ;
128 -> 134 ;
135 [label="gini = 0.0\nsamples = 8\nvalue = [8, 0]"] ;
134 -> 135 ;
136 [label="gini = 0.0\nsamples = 1\nvalue = [0, 1]"] ;
134 -> 136 ;
137 [label="X[2] <= 29.45\ngini = 0.444\nsamples = 27\nvalue = [9, 18]"] ;
103 -> 137 ;
138 [label="X[3] <= 54.5\ngini = 0.48\nsamples = 15\nvalue = [9, 6]"] ;
137 -> 138 ;
139 [label="X[5] <= 75.0\ngini = 0.278\nsamples = 6\nvalue = [1, 5]"] ;
138 -> 139 ;
140 [label="gini = 0.0\nsamples = 1\nvalue = [1, 0]"] ;
139 -> 140 ;
141 [label="gini = 0.0\nsamples = 5\nvalue = [0, 5]"] ;
139 -> 141 ;
142 [label="X[5] <= 75.0\ngini = 0.198\nsamples = 9\nvalue = [8, 1]"] ;
138 -> 142 ;
143 [label="X[3] <= 60.5\ngini = 0.444\nsamples = 3\nvalue = [2, 1]"] ;
142 -> 143 ;
144 [label="gini = 0.0\nsamples = 1\nvalue = [0, 1]"] ;
143 -> 144 ;
145 [label="gini = 0.0\nsamples = 2\nvalue = [2, 0]"] ;
143 -> 145 ;
146 [label="gini = 0.0\nsamples = 6\nvalue = [6, 0]"] ;
142 -> 146 ;
147 [label="gini = 0.0\nsamples = 12\nvalue = [0, 12]"] ;
137 -> 147 ;
148 [label="X[4] <= 139.0\ngini = 0.363\nsamples = 21\nvalue = [5, 16]"] ;
88 -> 148 ;
149 [label="gini = 0.0\nsamples = 11\nvalue = [0, 11]"] ;
148 -> 149 ;
150 [label="X[0] <= 2.5\ngini = 0.5\nsamples = 10\nvalue = [5, 5]"] ;
148 -> 150 ;
151 [label="gini = 0.0\nsamples = 3\nvalue = [3, 0]"] ;
150 -> 151 ;
152 [label="X[6] <= 0.821\ngini = 0.408\nsamples = 7\nvalue = [2, 5]"] ;
150 -> 152 ;
153 [label="gini = 0.0\nsamples = 4\nvalue = [0, 4]"] ;
152 -> 153 ;
154 [label="X[3] <= 36.0\ngini = 0.444\nsamples = 3\nvalue = [2, 1]"] ;
152 -> 154 ;
155 [label="gini = 0.0\nsamples = 1\nvalue = [0, 1]"] ;
154 -> 155 ;
156 [label="gini = 0.0\nsamples = 2\nvalue = [2, 0]"] ;
154 -> 156 ;
157 [label="X[3] <= 46.5\ngini = 0.188\nsamples = 19\nvalue = [2, 17]"] ;
87 -> 157 ;
158 [label="X[3] <= 25.0\ngini = 0.105\nsamples = 18\nvalue = [1, 17]"] ;
157 -> 158 ;
159 [label="X[6] <= 0.373\ngini = 0.375\nsamples = 4\nvalue = [1, 3]"] ;
158 -> 159 ;
160 [label="gini = 0.0\nsamples = 2\nvalue = [0, 2]"] ;
159 -> 160 ;
161 [label="X[6] <= 0.51\ngini = 0.5\nsamples = 2\nvalue = [1, 1]"] ;
159 -> 161 ;
162 [label="gini = 0.0\nsamples = 1\nvalue = [1, 0]"] ;
161 -> 162 ;
163 [label="gini = 0.0\nsamples = 1\nvalue = [0, 1]"] ;
161 -> 163 ;
164 [label="gini = 0.0\nsamples = 14\nvalue = [0, 14]"] ;
158 -> 164 ;
165 [label="gini = 0.0\nsamples = 1\nvalue = [1, 0]"] ;
157 -> 165 ;
166 [label="X[3] <= 59.5\ngini = 0.262\nsamples = 71\nvalue = [11, 60]"] ;
86 -> 166 ;
167 [label="X[1] <= 629.5\ngini = 0.19\nsamples = 66\nvalue = [7, 59]"] ;
166 -> 167 ;
168 [label="X[2] <= 23.1\ngini = 0.146\nsamples = 63\nvalue = [5, 58]"] ;
167 -> 168 ;
169 [label="gini = 0.0\nsamples = 1\nvalue = [1, 0]"] ;
168 -> 169 ;
170 [label="X[4] <= 188.5\ngini = 0.121\nsamples = 62\nvalue = [4, 58]"] ;
168 -> 170 ;
171 [label="X[2] <= 46.8\ngini = 0.038\nsamples = 52\nvalue = [1, 51]"] ;
170 -> 171 ;
172 [label="gini = 0.0\nsamples = 49\nvalue = [0, 49]"] ;
171 -> 172 ;
173 [label="X[1] <= 177.5\ngini = 0.444\nsamples = 3\nvalue = [1, 2]"] ;
171 -> 173 ;
174 [label="gini = 0.0\nsamples = 2\nvalue = [0, 2]"] ;
173 -> 174 ;
175 [label="gini = 0.0\nsamples = 1\nvalue = [1, 0]"] ;
173 -> 175 ;
176 [label="X[4] <= 193.5\ngini = 0.42\nsamples = 10\nvalue = [3, 7]"] ;
170 -> 176 ;
177 [label="gini = 0.0\nsamples = 3\nvalue = [3, 0]"] ;
176 -> 177 ;
178 [label="gini = 0.0\nsamples = 7\nvalue = [0, 7]"] ;
176 -> 178 ;
179 [label="X[5] <= 65.0\ngini = 0.444\nsamples = 3\nvalue = [2, 1]"] ;
167 -> 179 ;
180 [label="gini = 0.0\nsamples = 1\nvalue = [0, 1]"] ;
179 -> 180 ;
181 [label="gini = 0.0\nsamples = 2\nvalue = [2, 0]"] ;
179 -> 181 ;
182 [label="X[1] <= 247.5\ngini = 0.32\nsamples = 5\nvalue = [4, 1]"] ;
166 -> 182 ;
183 [label="gini = 0.0\nsamples = 4\nvalue = [4, 0]"] ;
182 -> 183 ;
184 [label="gini = 0.0\nsamples = 1\nvalue = [0, 1]"] ;
182 -> 184 ;
}